Language model created by QuickLM on Sun Jan 17 19:04:02 EST 2016
Copyright (c) 1996-2010 Carnegie Mellon University and Alexander I. Rudnicky

The model is in standard ARPA format, designed by Doug Paul while he was at MITRE.

The code that was used to produce this language model is available in Open Source.
Please visit http://www.speech.cs.cmu.edu/tools/ for more information

The (fixed) discount mass is 0.5. The backoffs are computed using the ratio method.
This model based on a corpus of 20 sentences and 19 words

\data\
ngram 1=19
ngram 2=37
ngram 3=26

\1-grams:
-0.8195 </s> -0.3010
-0.8195 <s> -0.2179
-1.8195 BACK -0.2297
-2.1206 BACKWARD -0.2297
-2.1206 COME -0.2297
-2.1206 FOLLOW -0.2297
-2.1206 FOWARD -0.2297
-2.1206 FRONT -0.2297
-1.3424 GO -0.1975
-2.1206 HELLO -0.2297
-1.8195 LEFT -0.2297
-1.8195 RIGHT -0.2297
-2.1206 ROTATE -0.2297
-2.1206 SARA -0.2297
-1.8195 SAY -0.2258
-2.1206 STOP -0.2297
-2.1206 THANK -0.2297
-2.1206 TOUCH -0.2297
-2.1206 WITH -0.2297

\2-grams:
-1.6021 <s> BACK 0.0000
-1.6021 <s> COME 0.0000
-1.6021 <s> FOLLOW 0.0000
-1.6021 <s> FRONT 0.0000
-0.8239 <s> GO 0.0000
-1.6021 <s> LEFT 0.0000
-1.6021 <s> RIGHT 0.0000
-1.6021 <s> ROTATE 0.0000
-1.6021 <s> SARA 0.0000
-1.3010 <s> SAY 0.0000
-1.6021 <s> STOP 0.0000
-1.6021 <s> THANK 0.0000
-1.6021 <s> TOUCH 0.0000
-1.6021 <s> WITH 0.0000
-0.3010 BACK </s> -0.3010
-0.3010 BACKWARD </s> -0.3010
-0.3010 COME </s> -0.3010
-0.3010 FOLLOW </s> -0.3010
-0.3010 FOWARD </s> -0.3010
-0.3010 FRONT </s> -0.3010
-1.0792 GO </s> -0.3010
-1.0792 GO BACK 0.0000
-1.0792 GO BACKWARD 0.0000
-1.0792 GO FOWARD 0.0000
-1.0792 GO LEFT 0.0000
-1.0792 GO RIGHT 0.0000
-0.3010 HELLO </s> -0.3010
-0.3010 LEFT </s> -0.3010
-0.3010 RIGHT </s> -0.3010
-0.3010 ROTATE </s> -0.3010
-0.3010 SARA </s> -0.3010
-0.6021 SAY </s> -0.3010
-0.6021 SAY HELLO 0.0000
-0.3010 STOP </s> -0.3010
-0.3010 THANK </s> -0.3010
-0.3010 TOUCH </s> -0.3010
-0.3010 WITH </s> -0.3010

\3-grams:
-0.3010 <s> BACK </s>
-0.3010 <s> COME </s>
-0.3010 <s> FOLLOW </s>
-0.3010 <s> FRONT </s>
-1.0792 <s> GO </s>
-1.0792 <s> GO BACK
-1.0792 <s> GO BACKWARD
-1.0792 <s> GO FOWARD
-1.0792 <s> GO LEFT
-1.0792 <s> GO RIGHT
-0.3010 <s> LEFT </s>
-0.3010 <s> RIGHT </s>
-0.3010 <s> ROTATE </s>
-0.3010 <s> SARA </s>
-0.6021 <s> SAY </s>
-0.6021 <s> SAY HELLO
-0.3010 <s> STOP </s>
-0.3010 <s> THANK </s>
-0.3010 <s> TOUCH </s>
-0.3010 <s> WITH </s>
-0.3010 GO BACK </s>
-0.3010 GO BACKWARD </s>
-0.3010 GO FOWARD </s>
-0.3010 GO LEFT </s>
-0.3010 GO RIGHT </s>
-0.3010 SAY HELLO </s>

\end\

